-42.297047 19.908594 -26.839384 -20.77166 -25.910875 -1.4833041 -8.5050745 25.608555 2.9536686 -37.930798 -27.696785 -42.235073 -27.982567 6.289246 -28.538937 -14.797797 -24.57402 -28.636515 -7.6465197 3.5931225
-30.6529 -33.305153 7.5270147 -31.872545 18.543993 -28.469492 -27.523241 0.8930009 -31.040596 -13.0969 -27.542908 1.5409575 -19.356283 -34.294144 21.144457 -37.511734 -1.0410963 34.42697 -43.859867 34.135914
16.508593 37.16211 -5.4199524 -22.204832 -18.01487 -21.968319 -18.446463 -9.148581 23.433182 11.154436 -4.5141344 -29.905443 5.82637 -24.474525 14.650842 1.9319577 18.617962 18.970848 15.095764 -19.20624
-0.8718381 -3.1843967 -6.8117714 -23.283773 -15.424625 6.0894694 -4.453068 -2.7164512 -11.010531 -11.940271 -7.0837936 -16.382704 -1.2822273 -3.670018 -25.152834 -14.213961 4.210882 10.023101 -16.092566 -4.0359426 -12.233745 -1.7718585 -6.855189 -11.277801 7.4250646 10.930972 0.42096773 -16.453102 15.241263 9.604595
-1.0383021 1.2530955 -0.31480765 -3.682874 -4.3706937 -5.075565 -1.4630266 -0.787446 4.4722395 3.48801 -6.4944553 -1.1003569 -5.8505926 1.7263399 4.8765025 -1.5476974 -19.002323 -31.599024 -1.4067366 -2.1073852 -8.975241 -5.3982825 2.3723006 6.965619 -4.9161224 -16.450397 -3.6244528 2.5649467 4.9487987 -4.761688
-1.110043 -1.1418343 10.374547 -2.4236102 -1.7491741 -1.4772191 7.239597 0.40265402 -1.6854327 1.357285 -1.1767367 36.025036 9.672289 0.48533237 -0.21050741 -0.14863856 4.002866 -18.979374 9.783366 2.0122566 5.467183 -0.76241386 -0.1739316 8.108163 -18.113483 -10.554669 6.5192146 1.1029637 -0.086997636 -10.326666
3.4286866 -0.32832742 0.051685926 -1.1120449 2.0374117 -3.432514 0.35649848 0.104230456 -2.7736542 -35.238914 8.306217 -17.431784 -1.0816777 -0.38838673 -0.15399145 -0.07326834 -1.5051 1.9245484 14.228676 0.10480343 -0.28836536 -0.8871639 -1.3949435 -0.8510609 11.719362 -0.6188664 -19.268524 -0.34952652 10.808904 10.988492
-0.10343474 0.29883128 5.824439 -2.5875416 -1.9507587 -0.72395015 7.312934 0.47059083 -1.7829968 35.47773 -2.0016885 -30.031063 -4.244745 -1.1825879 -0.5933947 0.43685502 4.729093 -24.809025 -22.644943 3.1790378 6.977243 0.60719067 -0.37731573 -7.295988 -7.341532 10.525626 -12.163816 -8.306701 -20.424734 0.032718614
-4.733839 -0.9944781 -1.170737 -1.5944551 -0.9438004 -8.733303 -0.007268759 -1.1578422 -4.1482635 -2.9657717 20.204384 -0.74981374 -0.79405296 -1.3820492 -2.1175685 7.977794 -1.6808729 -2.4270263 -14.37965 0.15242614 -0.91742826 0.013500173 -5.3979173 -0.34959581 -3.3183143 4.3238125 -4.151477 0.63953155 -9.832338 10.154434
-0.33340895 -0.6644452 -0.057948507 -1.5700731 0.77145714 -4.3374443 -0.1832188 -0.6698271 -2.1696174 -3.3717144 6.5400167 -19.24942 -0.80665684 -1.2235972 -0.15631822 -4.7390785 -1.3723509 -5.027258 -4.8239064 0.06735565 -0.21934752 -0.6845218 -2.5199952 0.88294435 14.895789 -2.5909195 -2.842146 1.0751462 24.685097 5.620072
-16.181965 1.8827722 2.3802724 -11.969752 -22.799948 7.5691085 -1.864822 -0.99448216 5.7179003 -6.045577 -11.836063 -1.6494117 -3.5338037 2.1822052 -4.9996986 -0.489613 -2.8652816 -4.0296044 -7.725368 -2.051614 -13.370326 -0.9370956 8.007686 -20.70124 -27.75274 15.948868 8.678887 -12.974159 2.4571629 -4.2237444
0.04134681 0.58859944 -15.801446 -3.3130677 17.333885 -5.7572484 -7.742354 0.49428758 6.891474 4.6601048 -7.5634184 13.595816 -15.925325 0.79338986 4.8834743 8.153127 -14.867765 -6.0927725 7.817104 -7.0202622 -9.370632 -5.7498674 1.3454299 11.567324 -0.75024635 -2.3897445 -18.767044 6.4469023 5.8314247 -5.699051
10.091076 -1.4692389 -1.0311627 1.6672736 -3.3255217 -6.749496 -12.34979 -1.1264184 -3.1696513 -7.340402 0.1416991 1.4976481 7.17188 -2.2225902 0.71577054 -2.071853 1.4963753 -1.9873431 11.245604 -6.862656 -8.689073 -0.6354492 -10.16963 -7.902031 -7.5784044 -10.921498 21.803333 8.672374 7.5106792 -19.955194
-1.8625454 -0.72035015 7.758853 -2.9517615 -20.314178 -0.49452305 -0.43472937 -2.0313082 -5.2079773 0.49311882 1.4290843 -8.655461 -2.4379392 -1.7345926 -2.1368413 -1.3677181 -2.059018 13.101258 -1.3790365 -0.66221976 0.7215936 -2.8127928 -6.496883 -2.4239442 -24.07181 -5.2049847 -1.2507371 -0.20969945 -0.22105902 3.7825735
-2.0749092 -0.43884662 1.9927827 -1.9835169 15.781898 -0.91030115 -0.1747325 -0.8770242 -1.4016336 -16.931679 -10.039625 24.01731 -3.7591212 0.15468535 -0.71398735 -0.70777786 9.336287 -0.35445872 -18.348436 -0.89413625 3.3462899 1.2428656 -1.5603564 0.3373122 -9.69718 -6.746569 -5.0395193 -1.5682514 -4.094089 -1.1522443
8.783167 -2.127035 -15.146704 -8.077927 8.473785 -4.885578 -0.57648295 -1.4125433 -6.718778 7.65266 -3.4692698 -18.47642 -10.001066 -1.9937598 -4.2693415 -3.7033234 3.236217 4.4581814 -2.8825471 -2.022812 -1.3660251 -2.0524607 -15.746475 2.2455614 -19.287725 5.9558983 11.3207035 -7.5914097 -16.243835 12.765518
-11.257624 -1.2741576 -1.219411 -1.8618859 0.8089907 -11.912553 -0.8510047 -0.6323415 -2.7397854 -4.291533 15.577233 -2.6076818 0.2491554 -1.3534268 -4.2772756 3.0924966 -2.1945798 -3.7825139 -3.4835634 -0.6308641 -1.3878076 -0.5290592 -14.544285 -0.20325142 -7.017468 -9.378967 -17.586277 1.0947157 -24.947542 3.1214676
-27.46226 -3.2996328 -4.337739 -18.014738 -3.542537 -3.3339336 -0.41607162 -0.12991948 -13.204356 -5.3588862 -13.866449 15.694882 0.5733742 -4.370783 -3.1308062 0.9892004 -4.734823 7.1999745 -1.5344299 -0.5997342 1.963898 -1.2730093 -10.038626 -0.7437219 -7.5835466 3.1179755 -13.7353 -5.0493884 -15.979455 -5.948096
0.7344878 1.3045657 1.2105286 -15.074989 0.07735701 19.367632 -0.92861587 -8.86465 -24.567787 21.145 -7.1290293 -1.2313374 -0.927829 -3.990639 -17.450151 -3.7166452 -6.1476526 -30.11572 -10.131759 0.030647643 -0.5630379 -2.9637604 -14.909374 -15.966127 17.445677 -7.896754 -5.5126667 -1.230379 -5.137784 0.0641016
3.2492263 -8.055233 -13.9576025 13.42653 4.630396 6.6578965 -1.2861639 -15.979471 -20.119534 0.61695206 6.0775795 19.437141 -0.6857624 -8.668057 6.8619704 -22.22298 -2.9803205 3.6163483 -2.9871225 -0.1571407 2.238395 -0.67973554 9.698351 -14.203298 8.144746 18.705797 5.9090805 4.1126914 -0.680912 -10.831027
-11.272585 -9.744506 -1.9284469 14.099381 -3.126313 -10.965655 -2.4064329 -1.131315 -18.576702 -4.8536587 10.963044 -6.14871 -1.1210706 -9.505994 -17.566732 -10.80878 -4.0815396 15.384058 1.6088068 -0.89282554 1.3085771 -0.4009207 -24.442291 -0.5386957 15.791874 4.0715995 -14.927214 2.49073 1.4585204 -4.0756593
0.50927067 -12.582284 0.0545125 17.283157 -12.754574 -5.1524997 -2.5202973 7.1056137 -3.1014566 -10.258782 -4.7189054 -15.857331 -1.7285572 -10.654904 0.985316 2.698077 -8.525839 14.962961 1.1227368 -1.9325653 -2.2513225 -4.879429 5.3953114 -2.023988 8.633514 -4.8018913 11.011208 -14.787035 -18.367483 -3.8754668
-0.67547345 -0.43507272 22.386847 -5.9752936 11.2677355 -0.64572144 -1.0194453 -2.4874113 -5.0735526 -11.4663925 -1.1001179 -16.085077 0.9022744 -5.4133005 -11.941291 12.215471 3.0799134 -8.181336 -10.618641 0.20901103 4.733316 -0.11981798 -1.8603075 4.708171 -3.4387562 -23.791601 6.2157297 -11.53893 -18.498455 -2.4465284
-1.7938768 1.740471 -0.68593407 -4.848526 -1.5767323 -4.7611375 -1.8390303 -1.8136827 3.7882254 -14.053437 -7.387584 -15.203183 -1.2347951 1.0637137 4.840382 -2.7903345 -5.4561653 4.114326 -3.8979237 -2.4484446 -0.76126087 -1.7894566 1.5003612 5.514017 -6.9810987 -8.696898 -3.1850054 -1.6066363 1.1933172 -7.0104237
12.905048 -1.2912885 -11.628409
-4.3846207 -6.4804626 4.708375
-3.4216137 0.39874968 9.105716
-12.807837 -6.071755 19.89957
-1.8877511 -5.058701 9.892243
-4.5260596 -15.545692 13.024484
-6.7251005 5.755184 -1.0243227
0.5578746 -3.7365017 4.5219016
-16.334366 4.390438 7.9499965
-4.8453856 -0.43277398 10.623553
-3.0752406 -19.647694 10.05513
-3.6947525 1.9372712 7.3517017
1.8666112 -7.483307 1.2911894
2.090825 -5.9882965 8.076396
10.08614 -15.753232 1.7520996
-3.1879404 0.5087372 8.941816
10.615488 -6.793462 -6.4403987
-16.0355 -1.0415218 13.298487
8.010913 -16.302748 -1.5775075
-3.3655438 0.01503517 -1.0477409
2.2351375 6.9677873 -15.6657505
-2.0845501 1.2810737 0.5180513
2.159508 17.181622 -12.587364
3.5641932 -2.9731245 -8.040418
14.397242 -11.777722 -9.374371
4.316847 -5.8524942 -4.8316007
-10.629985 3.9527178 8.122665
-4.6926856 12.301587 -9.966448
-4.3278937 0.49029323 9.799435
-10.536842 1.9873011 9.454713
1.9964584 -1.2000626 -9.420852