-10.001841 3.8006203 9.946215 0.94247156 -2.8196192 -11.421356 0.9532826 -5.0544987 9.765956 -13.338417
10.198876 -2.2424362 2.3686378 13.497967 -7.45268 2.1103954 16.788504 17.360342 -6.891832 -10.210962
9.511435 -1.4383239 -0.8822002 -4.232699 -7.8524885 -7.3245296 6.341442 0.7314336 -2.5758069 -2.0508106
-6.5905323 -6.8944716 5.838041 -2.892204 0.3134319 -1.4087464 10.535509 -3.1221373 -3.754493 -2.7992246
2.6725438 1.7708124 -5.100477 2.7777123 -1.1849531 0.48681733 -0.0834627 0.27430844 0.47485572 -1.2602967
5.0050883 4.3587027 -1.8895535 6.721169 -0.5661823 0.032977875 -3.9382696 -1.74498 -0.9429902 -2.869738
-0.30446383 -2.3980684 -9.470601 0.3078025 -6.6157117 -0.24928316 1.1872402 -1.9134051 -0.29195333 -2.0925674
-0.76256984 -2.3897634 -1.6588445 2.133811 0.09110307 -0.45536655 -3.7765896 0.79863936 2.8176112 7.969897
-0.90259075 -0.26316854 0.97581935 -2.3732712 0.8082288 -0.054547332 -5.8765025 -0.5980122 -4.9657226 11.620585
6.538584 -6.15365 7.1055 5.173368 -4.2701063 -1.2876539 1.4870605 -7.5402064 7.3302927 -3.5781698
-9.697339 9.35853 4.8916745 -3.9811306 -2.748834 -0.0386835 -16.311491 0.6492303 -5.033295 -6.8941703
4.769915 7.7865286 -2.9979386 -1.2326527 -0.32728422 0.316552 0.107272916 7.629233 0.6302022 -8.63305
-13.027147 -8.410017 -10.666813 0.2737557 4.734914 -0.005656277 -0.6643472 -2.9197958 3.383369 -3.8992186
-1.6467606 -1.9651096 0.1739142 -0.33074248 0.78471076 -1.5866741 -3.6370056 -1.9605088 -3.7396798 -4.14371
8.841157
-9.428712
-6.6749654
1.9312431
4.2873874
-0.7270086
-9.885008
-8.276528
6.4619045
-9.144437
5.480542