-0.38483247 1.7593338 -9.133466 -21.73074 0.76213324 18.107143 6.472817 -12.639921 10.171121 14.341496
-14.555523 7.9198456 17.707365 7.3010044 12.831866 12.165709 -13.861256 -4.7768064 -8.8351145 9.246367
-8.096378 -5.861539 5.4281716 -0.9713981 9.922268 5.756701 3.427804 -13.737545 -7.7330275 0.14701782
-2.48596 2.9371662 3.9297674 0.80316335 -0.73239905 1.2878988 2.3540716 -9.16987 0.19225189 0.064135104 -0.95575273 -2.6117165 -0.5988306 -3.6121616 -0.32113218 -0.1362262 -1.0838253 2.4956942 2.8861554 -4.8995333
-2.783951 -0.8733469 0.23361002 -0.18887633 -1.1211251 -2.0335307 -0.47049192 10.230759 -0.68292564 -0.8955947 -4.9334135 -0.2219472 -0.31802857 -0.20200658 -1.3110358 -0.92569345 0.55191135 -0.426118 -0.63465345 -0.51963496
1.5679519 15.304064 -3.5978978 1.5053322 1.5230342 -7.7076774 2.1070127 -1.8181795 -1.0015112 1.13821 -0.5549972 1.7713686 -0.13689674 -1.8044628 -1.1233449 -0.5950604 -0.602631 -4.1531687 -3.341198 5.7449408
1.1098247 4.23531 -0.7345925 -5.688154 -2.0787995 0.72847086 -12.1876335 -1.324872 -5.479665 -0.019789118 -3.6858277 -6.6312757 -0.18693452 -1.1447169 -1.1518619 -2.5938866 -0.8246836 -7.4422336 -6.2961097 2.5785713
1.5390044 0.1098178 -10.165952 0.44679457 0.6235084 1.9111468 0.5649718 0.23670594 1.3246136 0.528731 -0.11701084 1.0911816 -0.31628546 -0.7756412 -0.19902322 -0.79575557 -1.4423047 -2.577 -8.563936 -2.0450227
-3.2379677 -13.253819 2.8683217 -1.7113062 -2.365559 6.0462656 -0.35767233 -3.184041 -4.2609596 -1.3361169 -1.6331122 3.8704975 -0.78040296 -1.8630078 -1.8064373 -1.7796258 -1.4080684 -5.08288 -4.261311 -9.726315
-13.009709 -2.1998558 -0.931089 0.55282193 -1.9167827 -3.3210967 -0.28762025 7.4711843 1.5971842 -2.5034108 -4.5676093 -1.333002 -2.6749146 2.224391 -1.0132731 0.424228 -0.6298695 -0.74341697 -0.18340628 -1.1086895
0.4283212 -5.843381 6.3080397 -1.3791746 -1.5486482 -0.46053636 -2.3148198 2.032888 -1.2435921 -1.4544369 -1.6748687 -1.4067286 -1.2188885 -0.51813865 0.054965135 -0.9560493 -0.047678765 -3.8644156 -1.5088501 4.6380644
0.045944978 0.82519835 7.626461 1.1598914 1.4653703 -0.39392793 3.444832 -4.795658 0.22407654 0.084971555 1.1471999 2.0141075 0.5201668 -1.1945789 1.4394104 -1.2687868 1.3527832 8.582239 5.5925703 -0.51397836
-5.9511933 0.9234771 -8.199382 -1.0967307 1.9251305 -2.3375614 -1.0107831 6.453724 -1.7772973 2.5287442 9.069053 3.621907 0.6419659 -0.53203505 -0.8366562 0.30422512 -0.45984113 1.4701349 -1.4648976 -2.9957707
-0.06646179 -6.834741 -2.4197943 -0.7482031 -0.5488213 -0.84331477 -0.8463162 -6.646736 1.6590906 -0.79315007 -1.8201132 -1.7188226 -0.4479338 -2.3096178 -1.5241613 -1.2781241 -1.3148125 -0.43691283 -1.2538992 0.9062367
-2.8294168
7.506692
6.634123
1.0607588
2.1213174
-5.30448
4.984614
-10.021146
3.5559678
1.1276971
8.010271
3.0993922
1.0857236
-1.390703
0.43983385
1.3160332
0.45279452
-7.285314
-6.7460237
-5.998566
-2.176543