3.9092145 -16.260897 14.398649 -18.416058 -6.606451 12.409484 0.7184711 1.1681544 -0.3121028 -8.770239
9.598778 10.504841 -0.62049544 10.643202 34.078846 6.62201 -15.906798 -11.795116 2.919782 3.3135502
-6.5717235 5.4454226 -7.699825 0.87472004 -1.9566141 4.663877 -8.341157 -10.357102 -3.360826 -3.6387813
0.22771326 -1.8185964 -1.2060786 -3.049767 -2.1926084 -1.3674697 -0.99520516 8.178198 -1.9353904 -2.9485025 -0.5446223 -12.033479 -1.7045312 0.43361023 1.0129632 -0.7378448 -0.3437022 -5.5398073 -0.6723213 -0.8175183
-0.5346212 -15.98627 -3.0303283 -4.140601 -2.574584 -1.321944 -6.215999 -8.865414 -2.9392824 -8.754478 -2.6888509 4.382474 -1.381705 -1.6726921 -2.1396468 -3.1257727 -2.2928166 -2.7317972 -1.5031035 -2.2506068
3.6495593 9.759664 1.9102266 -1.1422321 1.0794204 0.7597677 -4.8984966 -4.769346 3.2626436 0.14315297 -2.287385 1.008258 0.0011155604 -0.5619012 -0.57861006 -1.337813 0.386133 -1.919946 0.6950595 0.44735888
-10.781848 -7.799837 -1.9235663 -0.8853408 -2.4882286 -2.8799493 -0.20010644 -8.237011 -3.0147865 -4.949909 -6.02771 -6.4083557 -1.277738 -0.8242949 -0.92155814 -2.006474 -2.1511824 -1.8436577 -0.41187233 -1.376961
-2.5193 0.74585134 -0.2602122 19.896141 -1.5665936 -1.8687499 3.7859626 -0.05721466 -1.7833229 -1.6664033 -0.80185616 6.92494 -0.20433001 -0.8008909 -0.8877198 0.3439268 -0.75992507 11.949919 1.3458676 0.6762506
4.5102377 -11.762411 -0.18569495 -15.028962 0.44804615 0.44466603 7.987222 12.913341 1.8939644 3.1369596 -2.4373775 -5.7625303 1.0176706 -0.4971534 0.12620592 -1.065453 -0.033272136 -7.973603 0.46184516 -1.3685097
1.3158276 2.5730975 -0.4585158 -9.597366 -0.26606834 0.44953194 -1.619266 -0.35137165 -0.011447674 0.55469453 14.343267 -12.593911 -0.017853787 -1.3838899 -0.62926865 0.084134795 -0.8942422 -0.8293753 0.17466922 -0.69662285
-3.2341442 6.0311704 0.6681329 6.83466 1.1604306 -0.5383858 -3.482138 -6.102036 2.2508178 6.261149 -3.965673 -1.0262262 0.69205034 0.0035103273 0.5999137 0.2685033 0.18151747 -1.5459957 0.45280856 -0.0020641985
-0.69263405 -2.004278 -0.07398697 -1.0387448 -1.5661294 -0.087287635 -0.065305464 0.12058787 -2.0517209 0.08437024 -0.957511 -1.5557318 -0.91201234 0.18681979 -1.3414901 -0.89458156 0.27759063 0.75545716 -0.1068651 -1.6309735
-1.0500691 -3.5858972 -1.7946068 -2.840898 -1.4173418 0.027356697 -2.5508533 2.0824656 -1.493331 -1.8020571 2.6609766 -0.36641216 -1.2973483 -1.4938465 -0.9358296 -0.15405968 -0.08783041 2.612098 -0.7900851 -0.40560928
-1.5224329 4.085575 -1.3707899 6.2838063 -1.632056 -1.8223857 -4.1442065 -4.50482 -2.2108586 2.932144 -4.5642767 4.528508 -2.0172167 -0.5699975 -1.726788 -0.12605551 -0.91526544 -2.6703687 -2.2529664 -0.7536384
10.570667
-9.94044
0.96121854
4.5567355
1.0319929
1.1240896
-4.5020275
-13.650363
2.9848201
5.6346803
-1.6660572
-2.9921408
0.8621288
-0.40613014
-0.42273286
-1.5892223
0.08892882
-3.7278564
0.85164934
-0.7433157
0.9562881